import { Network } from "./Network";

const data = [
  '{"layers":[{"weights":{"rows":5,"cols":6,"data":[-0.7343792622857483,-0.6662048884169112,0.8012372196632984,0.9171471737240359,-0.43974360231921583,-0.10524994414554123,-1.5930650941586717,-0.06775400533208908,-0.09368296835497825,-0.28992798064351877,-0.7038380033763494,0.20823686403242556,0.3458399765341278,0.7747029804068242,-0.9183115604706,-0.9987547835187228,1.1700213845234129,0.2,-0.289617384640676,-0.7237391116101386,-0.2687058037725656,0.7226063162872396,0.2711720802564366,0.2,0.22699520413817975,0.2547363332733603,-0.9980713746837977,0.00155026609277642,-0.4331590226569496,0]},"bias":{"rows":5,"cols":1,"data":[-0.8742153208385317,-0.09702411773183736,-0.14725931125904787,0.6860153395401856,0.9344502268733281]}},{"weights":{"rows":2,"cols":5,"data":[-0.2809592519374813,-0.8479861115935726,-1.6317010220353765,0.5096811272239324,-0.5959726031312274,0.3118626867431862,-0.9508700685347256,-1.059480331900989,-0.48725564725092174,0.3219728513965874]},"bias":{"rows":2,"cols":1,"data":[-0.6794223877983008,-0.35993474585909]}}]}',
  '{"layers":[{"weights":{"rows":5,"cols":6,"data":[-0.7343792622857483,-0.4008688110414686,0.6901110808073895,0.8661507054545087,-0.522289471843612,0.2,-1.5930650941586717,-0.06775400533208908,-0.09368296835497825,-0.4142008935053837,-0.6905831518860664,0.2,0.3458399765341278,0.6355337997427478,-0.8654547884025654,-0.8966868596079296,1.1700213845234129,0.09225072232295647,-0.289617384640676,-0.6637429932912194,-0.3129004156593797,0.8452008335251906,0.32056811963873466,0.2,0.22699520413817975,0.2547363332733603,-0.9980713746837977,0.06663931154931886,-0.487093628430983,0]},"bias":{"rows":5,"cols":1,"data":[-0.8742153208385317,0.03052990611071027,-0.20312537555701757,0.6860153395401856,0.9344502268733281]}},{"weights":{"rows":2,"cols":5,"data":[-0.21641018219873165,-0.8479861115935726,-1.5161274813440455,0.48711504347458584,-0.5959726031312274,0.31233363785472035,-0.9508700685347256,-0.8966558982715647,-0.6226350352104131,0.3219728513965874]},"bias":{"rows":2,"cols":1,"data":[-0.6899553502206254,-0.35993474585909]}}]}',
  '{"layers":[{"weights":{"rows":5,"cols":6,"data":[-0.7343792622857483,-0.7156064918103707,0.8704433559240217,0.952854375105269,-0.522289471843612,-0.10524994414554123,-1.5930650941586717,-0.12165519607105783,-0.09368296835497825,-0.36595023905278534,-0.8412089844504455,0.2,0.3454869631269157,0.6355337997427478,-0.9183115604706,-0.8966868596079296,1.1700213845234129,0.2,-0.26623145009924787,-0.7225285762980515,-0.3311556115841269,0.7127687166888768,0.2711720802564366,0.2,0.22699520413817975,0.2547363332733603,-0.9980713746837977,-0.13750688082930473,-0.39283204398746696,-0.14322735888800445]},"bias":{"rows":5,"cols":1,"data":[-0.7607675858289419,0.03052990611071027,-0.07747954362201837,0.6860153395401856,0.9344502268733281]}},{"weights":{"rows":2,"cols":5,"data":[-0.2809592519374813,-0.8479861115935726,-1.6246398821390793,0.4922680116789493,-0.6879940389735606,0.3118626867431862,-0.9508700685347256,-0.9065070603594436,-0.48725564725092174,0.3219728513965874]},"bias":{"rows":2,"cols":1,"data":[-0.6547255464497153,-0.35993474585909]}}]}',
  '{"layers":[{"weights":{"rows":5,"cols":6,"data":[-0.7343792622857483,-0.6592765173822479,0.8012372196632984,0.8661507054545087,-0.522289471843612,0.14291564889055902,-1.5930650941586717,-0.06775400533208908,-0.09368296835497825,-0.36595023905278534,-0.6163205747168452,0.2,0.37224246430508284,0.6355337997427478,-1.0480425445361086,-0.8966868596079296,1.3000884090408726,0.2,-0.289617384640676,-0.7237391116101386,-0.2687058037725656,0.7127687166888768,0.2711720802564366,0.2,0.22699520413817975,0.2547363332733603,-0.9980713746837977,0.1091806266781548,-0.487093628430983,0.01950248219989321]},"bias":{"rows":5,"cols":1,"data":[-0.8742153208385317,0.029004932636399517,-0.07747954362201837,0.6860153395401856,0.9344502268733281]}},{"weights":{"rows":2,"cols":5,"data":[-0.2281070945527333,-0.8479861115935726,-1.588578904063479,0.6078581817016856,-0.5959726031312274,0.3118626867431862,-0.9508700685347256,-1.006471778213737,-0.5565169861696306,0.3219728513965874]},"bias":{"rows":2,"cols":1,"data":[-0.6794223877983008,-0.35993474585909]}}]}',
  '{"layers":[{"weights":{"rows":5,"cols":6,"data":[-0.7343792622857483,-0.6592765173822479,0.8012372196632984,0.8661507054545087,-0.522289471843612,0.2,-1.5930650941586717,-0.06775400533208908,-0.09368296835497825,-0.36595023905278534,-0.6905831518860664,0.2,0.4236638108203142,0.6355337997427478,-1.0480425445361086,-0.8966868596079296,1.3000884090408726,0.2,-0.289617384640676,-0.7237391116101386,-0.2687058037725656,0.7127687166888768,0.2711720802564366,0.2,0.22699520413817975,0.20374607994577956,-0.9980713746837977,0.1091806266781548,-0.487093628430983,-0.02123447310325113]},"bias":{"rows":5,"cols":1,"data":[-0.8742153208385317,0.029004932636399517,-0.07747954362201837,0.6860153395401856,0.9344502268733281]}},{"weights":{"rows":2,"cols":5,"data":[-0.2809592519374813,-0.8479861115935726,-1.588578904063479,0.6078581817016856,-0.5959726031312274,0.3118626867431862,-0.9508700685347256,-1.006471778213737,-0.48725564725092174,0.3617478310725684]},"bias":{"rows":2,"cols":1,"data":[-0.6794223877983008,-0.35993474585909]}}]}',
  '{"layers":[{"weights":{"rows":5,"cols":6,"data":[-0.7343792622857483,-0.7156064918103707,0.8704433559240217,0.952854375105269,-0.663306974917056,-0.2282959607427112,-1.5930650941586717,-0.12165519607105783,-0.09368296835497825,-0.36595023905278534,-0.7208715783646127,0.2,0.3458399765341278,0.6355337997427478,-0.9183115604706,-0.8966868596079296,1.110221026759836,0.2,-0.26623145009924787,-0.7225285762980515,-0.3311556115841269,0.7127687166888768,0.2711720802564366,0.2,0.22699520413817975,0.2547363332733603,-0.9980713746837977,-0.13750688082930473,-0.39283204398746696,0]},"bias":{"rows":5,"cols":1,"data":[-0.7607675858289419,0.03052990611071027,-0.07747954362201837,0.6860153395401856,0.9344502268733281]}},{"weights":{"rows":2,"cols":5,"data":[-0.2809592519374813,-0.8479861115935726,-1.6246398821390793,0.4922680116789493,-0.6058928146826918,0.3118626867431862,-0.9508700685347256,-0.9065070603594436,-0.48725564725092174,0.3219728513965874]},"bias":{"rows":2,"cols":1,"data":[-0.6547255464497153,-0.35993474585909]}}]}',
  '{"layers":[{"weights":{"rows":5,"cols":6,"data":[-0.7343792622857483,-0.7156064918103707,0.8704433559240217,0.952854375105269,-0.522289471843612,-0.10524994414554123,-1.5930650941586717,-0.12165519607105783,-0.09368296835497825,-0.36595023905278534,-0.7274213277189961,0.2,0.3458399765341278,0.6355337997427478,-0.9183115604706,-0.8966868596079296,1.1700213845234129,0.2,-0.26623145009924787,-0.7225285762980515,-0.3311556115841269,0.7127687166888768,0.2711720802564366,0.2,0.22699520413817975,0.2547363332733603,-0.9980713746837977,-0.13750688082930473,-0.39283204398746696,0]},"bias":{"rows":5,"cols":1,"data":[-0.7607675858289419,0.03052990611071027,-0.07747954362201837,0.6860153395401856,0.9344502268733281]}},{"weights":{"rows":2,"cols":5,"data":[-0.2809592519374813,-0.8479861115935726,-1.6246398821390793,0.4922680116789493,-0.6058928146826918,0.3118626867431862,-0.9508700685347256,-0.9065070603594436,-0.48725564725092174,0.3219728513965874]},"bias":{"rows":2,"cols":1,"data":[-0.6547255464497153,-0.35993474585909]}}]}',
  '{"layers":[{"weights":{"rows":5,"cols":6,"data":[-0.7343792622857483,-0.786398531715258,0.8012372196632984,0.9034280468925104,-0.522289471843612,0.1300118182632184,-1.7043879359960337,-0.06775400533208908,-0.09368296835497825,-0.36595023905278534,-0.8337709891974532,0.19434512837602036,0.3458399765341278,0.6355337997427478,-1.0307091402317798,-0.8966868596079296,1.1700213845234129,0.2,-0.18385485387655526,-0.7237391116101386,-0.2687058037725656,0.7922301802619243,0.2711720802564366,0.3007776994643681,0.22699520413817975,0.3911470772933554,-0.9980713746837977,-0.004554063261527741,-0.43766277367550377,0]},"bias":{"rows":5,"cols":1,"data":[-0.8742153208385317,0.03052990611071027,-0.044604299489914755,0.5915912091385896,0.9344502268733281]}},{"weights":{"rows":2,"cols":5,"data":[-0.2809592519374813,-0.8479861115935726,-1.6246398821390793,0.5917923533201176,-0.5959726031312274,0.3118626867431862,-0.9508700685347256,-0.9368463501183593,-0.5978341840657926,0.3509983888660354]},"bias":{"rows":2,"cols":1,"data":[-0.6794223877983008,-0.35993474585909]}}]}',
  '{"layers":[{"weights":{"rows":5,"cols":6,"data":[-0.7343792622857483,-0.5504383109135935,0.8574500832564654,0.8689312519132786,-0.4129316001315637,0.12467972361661293,-1.6006797070422425,-0.06775400533208908,-0.11570647476177834,-0.36595023905278534,-0.6905831518860664,0.2,0.3458399765341278,0.6459408870346156,-1.0307091402317798,-0.8966868596079296,1.3754991538821497,0.2,-0.289617384640676,-0.7237391116101386,-0.2687058037725656,0.7127687166888768,0.2711720802564366,0.33482411480674446,0.22699520413817975,0.3911470772933554,-0.9980713746837977,-0.004554063261527741,-0.4923881466763663,0]},"bias":{"rows":5,"cols":1,"data":[-0.9606599562831017,0.03052990611071027,-0.06553853735870407,0.7124366828424314,0.9344502268733281]}},{"weights":{"rows":2,"cols":5,"data":[-0.2809592519374813,-0.7555851919215595,-1.9487099141284603,0.4922680116789493,-0.5959726031312274,0.3118626867431862,-0.9508700685347256,-0.9305317506850364,-0.48725564725092174,0.4166172925091889]},"bias":{"rows":2,"cols":1,"data":[-0.6794223877983008,-0.35993474585909]}}]}',
  '{"layers":[{"weights":{"rows":5,"cols":6,"data":[-0.7343792622857483,-0.7212035272615563,0.8012372196632984,0.9171471737240359,-0.43974360231921583,-0.10524994414554123,-1.5930650941586717,-0.06775400533208908,-0.09368296835497825,-0.28992798064351877,-0.7038380033763494,0.2,0.4524739390446457,0.7747029804068242,-0.9835825846001693,-0.8966868596079296,1.3166610239168735,0.2,-0.289617384640676,-0.8608848114120863,-0.2687058037725656,0.7127687166888768,0.2711720802564366,0.2,0.22166585375336845,0.1322025376745964,-0.9980713746837977,0.14488634828063857,-0.29359383359720637,0]},"bias":{"rows":5,"cols":1,"data":[-0.8742153208385317,-0.09702411773183736,-0.14725931125904787,0.6860153395401856,0.9344502268733281]}},{"weights":{"rows":2,"cols":5,"data":[-0.2809592519374813,-0.8479861115935726,-1.6348159331106464,0.4922680116789493,-0.5959726031312274,0.3118626867431862,-0.9508700685347256,-0.9937205933536257,-0.48725564725092174,0.3219728513965874]},"bias":{"rows":2,"cols":1,"data":[-0.6794223877983008,-0.3680343993890236]}}]}',
];

const deserialized = data.map((serialized) => Network.deserialize(serialized));

export function getPreTrainedNetworks(): Network[] {
  return deserialized;
}
