import { Network } from "./Network";

const data = [
  '{"layers":[{"weights":{"rows":5,"cols":5,"data":[-0.7343792622857483,-0.6662048884169112,0.8439051874556758,0.9763258046169274,-0.522289471843612,-1.1410258258121577,-0.045510112636296673,-0.09368296835497825,-0.36595023905278534,-0.46147981121406323,0.7832903727117069,0.724892884066448,-0.8322706025125148,-1.4595909100713207,0.8980583957646009,-0.48527080011406576,-0.3746895124769589,-0.2687058037725656,0.7127687166888768,0.2711720802564366,0.22699520413817975,0.2547363332733603,-0.9980713746837977,-0.004554063261527741,-0.487093628430983]},"bias":{"rows":5,"cols":1,"data":[-0.8742153208385317,-0.45757005660134364,-0.07747954362201837,0.6860153395401856,0.9344502268733281]}},{"weights":{"rows":2,"cols":5,"data":[-0.2809592519374813,-0.9780190798718591,-1.5032976953070931,0.019743095532193333,-0.9190815002644608,0.4266495776172259,-0.625601847862149,-1.3170041927541838,-0.3110009880088047,0.8105432561046717]},"bias":{"rows":2,"cols":1,"data":[-0.6794223877983008,-0.3589628667299376]}}]}',
  '{"layers":[{"weights":{"rows":5,"cols":5,"data":[-0.7343792622857483,-0.6662048884169112,0.8439051874556758,0.9763258046169274,-0.522289471843612,-1.1410258258121577,-0.3759223524818587,-0.3769535016824801,-0.36595023905278534,-0.46147981121406323,0.7832903727117069,0.724892884066448,-0.8322706025125148,-1.2888786756543584,0.8980583957646009,-0.289617384640676,-0.6614476411642514,-0.2687058037725656,0.5800178543808587,0.2711720802564366,0.22699520413817975,0.2547363332733603,-0.9980713746837977,-0.004554063261527741,-0.487093628430983]},"bias":{"rows":5,"cols":1,"data":[-0.8742153208385317,-0.45757005660134364,0.042456857516969926,0.6860153395401856,0.9344502268733281]}},{"weights":{"rows":2,"cols":5,"data":[-0.2809592519374813,-0.9780190798718591,-1.5032976953070931,0.019743095532193333,-0.9190815002644608,0.4266495776172259,-0.625601847862149,-0.8966558982715647,-0.3110009880088047,0.8105432561046717]},"bias":{"rows":2,"cols":1,"data":[-0.6794223877983008,-0.3589628667299376]}}]}',
  '{"layers":[{"weights":{"rows":5,"cols":5,"data":[-0.7343792622857483,-0.6662048884169112,0.8439051874556758,0.9763258046169274,-0.522289471843612,-1.1410258258121577,-0.045510112636296673,-0.1764231712781943,-0.36595023905278534,-0.46147981121406323,0.7832903727117069,0.724892884066448,-0.8322706025125148,-1.2888786756543584,0.8980583957646009,-0.48527080011406576,-0.3746895124769589,-0.2687058037725656,0.7127687166888768,0.2711720802564366,0.22699520413817975,0.2547363332733603,-0.9980713746837977,-0.004554063261527741,-0.487093628430983]},"bias":{"rows":5,"cols":1,"data":[-0.8742153208385317,-0.45757005660134364,-0.07747954362201837,0.6860153395401856,0.9344502268733281]}},{"weights":{"rows":2,"cols":5,"data":[-0.2809592519374813,-0.9780190798718591,-1.5032976953070931,0.019743095532193333,-0.9190815002644608,0.4266495776172259,-0.625601847862149,-1.3170041927541838,-0.3110009880088047,0.8105432561046717]},"bias":{"rows":2,"cols":1,"data":[-0.6794223877983008,-0.3589628667299376]}}]}',
  '{"layers":[{"weights":{"rows":5,"cols":5,"data":[-0.7343792622857483,-0.6662048884169112,0.8439051874556758,0.9763258046169274,-0.522289471843612,-1.1410258258121577,-0.045510112636296673,-0.1764231712781943,-0.36595023905278534,-0.46147981121406323,0.7832903727117069,0.724892884066448,-0.8322706025125148,-1.2888786756543584,0.8980583957646009,-0.48527080011406576,-0.3746895124769589,-0.2687058037725656,0.7127687166888768,0.2711720802564366,0.22699520413817975,0.2547363332733603,-0.9980713746837977,-0.004554063261527741,-0.487093628430983]},"bias":{"rows":5,"cols":1,"data":[-0.8742153208385317,-0.45757005660134364,-0.07747954362201837,0.6860153395401856,0.9344502268733281]}},{"weights":{"rows":2,"cols":5,"data":[-0.2809592519374813,-0.9780190798718591,-1.5032976953070931,0.019743095532193333,-0.9190815002644608,0.4266495776172259,-0.625601847862149,-1.3170041927541838,-0.3110009880088047,0.8105432561046717]},"bias":{"rows":2,"cols":1,"data":[-0.6794223877983008,-0.3589628667299376]}}]}',
  '{"layers":[{"weights":{"rows":5,"cols":5,"data":[-0.7343792622857483,-0.6662048884169112,0.8439051874556758,0.9763258046169274,-0.522289471843612,-1.1410258258121577,-0.3759223524818587,-0.3769535016824801,-0.36595023905278534,-0.46147981121406323,0.7832903727117069,0.724892884066448,-0.8322706025125148,-1.2888786756543584,0.8980583957646009,-0.289617384640676,-0.6614476411642514,-0.2687058037725656,0.5800178543808587,0.2711720802564366,0.22699520413817975,0.2547363332733603,-0.9980713746837977,-0.004554063261527741,-0.487093628430983]},"bias":{"rows":5,"cols":1,"data":[-0.8742153208385317,-0.45757005660134364,0.042456857516969926,0.6860153395401856,0.9344502268733281]}},{"weights":{"rows":2,"cols":5,"data":[-0.2809592519374813,-0.9780190798718591,-1.5032976953070931,0.019743095532193333,-0.9190815002644608,0.4266495776172259,-0.625601847862149,-0.8966558982715647,-0.3110009880088047,0.8105432561046717]},"bias":{"rows":2,"cols":1,"data":[-0.6794223877983008,-0.3589628667299376]}}]}',
  '{"layers":[{"weights":{"rows":5,"cols":5,"data":[-0.7343792622857483,-0.6662048884169112,0.8012372196632984,0.9034280468925104,-0.522289471843612,-1.5930650941586717,-0.2800838370055396,-0.09368296835497825,-0.36595023905278534,-0.6905831518860664,0.3458399765341278,0.6355337997427478,-0.8322706025125148,-0.8966868596079296,1.1700213845234129,-0.289617384640676,-0.7237391116101386,-0.2687058037725656,0.7127687166888768,0.2711720802564366,0.22699520413817975,0.2547363332733603,-0.9980713746837977,-0.004554063261527741,-0.487093628430983]},"bias":{"rows":5,"cols":1,"data":[-0.8742153208385317,0.03052990611071027,-0.07747954362201837,0.6860153395401856,0.9344502268733281]}},{"weights":{"rows":2,"cols":5,"data":[-0.2809592519374813,-0.8479861115935726,-1.6246398821390793,0.4922680116789493,-0.5959726031312274,0.4266495776172259,-0.9508700685347256,-0.8966558982715647,-0.48725564725092174,0.3219728513965874]},"bias":{"rows":2,"cols":1,"data":[-0.6794223877983008,-0.35993474585909]}}]}',
  '{"layers":[{"weights":{"rows":5,"cols":5,"data":[-0.7343792622857483,-0.6662048884169112,0.8439051874556758,0.9763258046169274,-0.522289471843612,-1.1410258258121577,-0.3759223524818587,-0.3769535016824801,-0.36595023905278534,-0.46147981121406323,0.7832903727117069,0.7854491680381197,-0.8322706025125148,-1.2888786756543584,0.8980583957646009,-0.289617384640676,-0.6614476411642514,-0.2687058037725656,0.5746858966153929,0.2711720802564366,0.22699520413817975,0.2547363332733603,-0.9980713746837977,-0.004554063261527741,-0.487093628430983]},"bias":{"rows":5,"cols":1,"data":[-0.8524814240492661,-0.45757005660134364,0.042456857516969926,0.6860153395401856,0.9344502268733281]}},{"weights":{"rows":2,"cols":5,"data":[-0.2809592519374813,-0.9780190798718591,-1.5032976953070931,0.019743095532193333,-0.9190815002644608,0.4266495776172259,-0.625601847862149,-0.8966558982715647,-0.3110009880088047,0.8105432561046717]},"bias":{"rows":2,"cols":1,"data":[-0.6794223877983008,-0.3589628667299376]}}]}',
  '{"layers":[{"weights":{"rows":5,"cols":5,"data":[-0.7343792622857483,-0.6662048884169112,0.8012372196632984,0.9034280468925104,-0.522289471843612,-1.5930650941586717,-0.2800838370055396,-0.09368296835497825,-0.36595023905278534,-0.6905831518860664,0.3458399765341278,0.6355337997427478,-0.8322706025125148,-0.8966868596079296,1.1700213845234129,-0.289617384640676,-0.7237391116101386,-0.2687058037725656,0.7127687166888768,0.2711720802564366,0.22699520413817975,0.2547363332733603,-0.9980713746837977,-0.004554063261527741,-0.487093628430983]},"bias":{"rows":5,"cols":1,"data":[-0.8742153208385317,0.03052990611071027,-0.07747954362201837,0.6860153395401856,0.9344502268733281]}},{"weights":{"rows":2,"cols":5,"data":[-0.2809592519374813,-0.8479861115935726,-1.6246398821390793,0.4922680116789493,-0.5959726031312274,0.4266495776172259,-0.9508700685347256,-0.8966558982715647,-0.48725564725092174,0.3219728513965874]},"bias":{"rows":2,"cols":1,"data":[-0.6794223877983008,-0.3589628667299376]}}]}',
  '{"layers":[{"weights":{"rows":5,"cols":5,"data":[-0.7343792622857483,-0.6662048884169112,0.8439051874556758,0.9763258046169274,-0.522289471843612,-1.1410258258121577,-0.3759223524818587,-0.3769535016824801,-0.36595023905278534,-0.46147981121406323,0.7832903727117069,0.7854491680381197,-0.8322706025125148,-1.2888786756543584,0.8980583957646009,-0.289617384640676,-0.6614476411642514,-0.2687058037725656,0.5746858966153929,0.2711720802564366,0.22699520413817975,0.2547363332733603,-0.9980713746837977,-0.004554063261527741,-0.487093628430983]},"bias":{"rows":5,"cols":1,"data":[-0.8524814240492661,-0.45757005660134364,0.042456857516969926,0.6860153395401856,0.9344502268733281]}},{"weights":{"rows":2,"cols":5,"data":[-0.2809592519374813,-0.9780190798718591,-1.5032976953070931,0.019743095532193333,-0.9190815002644608,0.4266495776172259,-0.625601847862149,-0.8966558982715647,-0.3110009880088047,0.8105432561046717]},"bias":{"rows":2,"cols":1,"data":[-0.6794223877983008,-0.3589628667299376]}}]}',
  '{"layers":[{"weights":{"rows":5,"cols":5,"data":[-0.7343792622857483,-0.6662048884169112,0.8439051874556758,0.9763258046169274,-0.522289471843612,-1.1410258258121577,-0.3759223524818587,-0.3769535016824801,-0.3459472643689828,-0.46147981121406323,0.7832903727117069,0.724892884066448,-0.8322706025125148,-1.2888786756543584,0.8980583957646009,-0.289617384640676,-0.6614476411642514,-0.2687058037725656,0.5800178543808587,0.2711720802564366,0.22699520413817975,0.2547363332733603,-0.9980713746837977,-0.004554063261527741,-0.487093628430983]},"bias":{"rows":5,"cols":1,"data":[-0.8742153208385317,-0.45757005660134364,0.042456857516969926,0.6860153395401856,0.9344502268733281]}},{"weights":{"rows":2,"cols":5,"data":[-0.2809592519374813,-0.9780190798718591,-1.5032976953070931,0.019743095532193333,-0.9190815002644608,0.4266495776172259,-0.625601847862149,-0.8966558982715647,-0.3110009880088047,0.8105432561046717]},"bias":{"rows":2,"cols":1,"data":[-0.6794223877983008,-0.3589628667299376]}}]}',
];

const deserialized = data.map((serialized) => Network.deserialize(serialized));

export function getPreTrainedNetworks(): Network[] {
  return deserialized;
}
